digraph Tree {
node [shape=box, style="filled, rounded", color="black", fontname=helvetica] ;
edge [fontname=helvetica] ;
0 [label="failures <= 2.5\ngini = 0.354\nsamples = 835\nvalue = [192, 643]\nclass = low", fillcolor="#399de5b3"] ;
1 [label="internet <= 0.5\ngini = 0.362\nsamples = 809\nvalue = [192, 617]\nclass = low", fillcolor="#399de5b0"] ;
0 -> 1 [labeldistance=2.5, labelangle=45, headlabel="True"] ;
2 [label="failures <= 0.5\ngini = 0.297\nsamples = 171\nvalue = [31, 140]\nclass = low", fillcolor="#399de5c7"] ;
1 -> 2 ;
3 [label="gini = 0.278\nsamples = 138\nvalue = [23, 115]\nclass = low", fillcolor="#399de5cc"] ;
2 -> 3 ;
4 [label="failures <= 1.5\ngini = 0.367\nsamples = 33\nvalue = [8, 25]\nclass = low", fillcolor="#399de5ad"] ;
2 -> 4 ;
5 [label="gini = 0.384\nsamples = 27\nvalue = [7, 20]\nclass = low", fillcolor="#399de5a6"] ;
4 -> 5 ;
6 [label="gini = 0.278\nsamples = 6\nvalue = [1, 5]\nclass = low", fillcolor="#399de5cc"] ;
4 -> 6 ;
7 [label="failures <= 0.5\ngini = 0.377\nsamples = 638\nvalue = [161, 477]\nclass = low", fillcolor="#399de5a9"] ;
1 -> 7 ;
8 [label="gini = 0.393\nsamples = 547\nvalue = [147, 400]\nclass = low", fillcolor="#399de5a1"] ;
7 -> 8 ;
9 [label="failures <= 1.5\ngini = 0.26\nsamples = 91\nvalue = [14, 77]\nclass = low", fillcolor="#399de5d1"] ;
7 -> 9 ;
10 [label="gini = 0.216\nsamples = 73\nvalue = [9, 64]\nclass = low", fillcolor="#399de5db"] ;
9 -> 10 ;
11 [label="gini = 0.401\nsamples = 18\nvalue = [5, 13]\nclass = low", fillcolor="#399de59d"] ;
9 -> 11 ;
12 [label="gini = 0.0\nsamples = 26\nvalue = [0, 26]\nclass = low", fillcolor="#399de5ff"] ;
0 -> 12 [labeldistance=2.5, labelangle=-45, headlabel="False"] ;
}